<?xml version="1.0"?>
<opencv_storage>
<my_svm type_id="opencv-ml-svm">
  <svm_type>C_SVC</svm_type>
  <kernel><type>LINEAR</type></kernel>
  <C>64.</C>
  <term_criteria><epsilon>1.1920928955078125e-007</epsilon>
    <iterations>2147483647</iterations></term_criteria>
  <var_all>500</var_all>
  <var_count>500</var_count>
  <class_count>3</class_count>
  <class_labels type_id="opencv-matrix">
    <rows>1</rows>
    <cols>3</cols>
    <dt>i</dt>
    <data>
      0 1 2</data></class_labels>
  <sv_total>3</sv_total>
  <support_vectors>
    <_>
      -4.07937908e+000 -1.35047808e-001 -2.98129725e+000
      -2.85840988e+000 -3.91162395e-001 2.75914288e+000 -8.72114241e-001
      2.17340064e+000 4.55298090e+000 -2.00270343e+000 -2.15714860e+000
      1.01979303e+000 2.04950666e+000 1.47751880e+000 6.84471607e-001
      -1.07704437e+000 3.79816711e-001 4.79976988e+000 -8.86213705e-002
      1.02227616e+000 -3.07369471e+000 -5.90353489e+000 -7.30230331e-001
      4.30535698e+000 1.19903290e+000 -1.85307395e+000 -5.45180917e-001
      5.56842208e-001 2.25709748e+000 -2.68800169e-001 -3.03079605e+000
      -2.92039007e-001 6.06097341e-001 4.41750050e+000 -1.43830216e+000
      -8.66656244e-001 -2.99114823e+000 1.80535465e-002 -1.15851545e+000
      2.07872033e+000 -2.25977644e-001 -1.52088594e+000 1.22756648e+000
      -2.82520509e+000 2.63902247e-001 8.84872794e-001 -4.53748512e+000
      1.35780144e+000 -1.93700004e+000 -2.88542104e+000 1.16609025e+000
      1.35103852e-001 -2.29132131e-001 -1.37568164e+000 -1.26514590e+000
      1.40192300e-001 -2.27525020e+000 -8.78059566e-001 2.28208041e+000
      -8.85016173e-002 1.84369433e+000 1.31257808e+000 3.86919284e+000
      1.73197746e+000 -1.08044291e+000 2.02859282e+000 -1.27290285e+000
      -1.53650844e+000 1.27672756e+000 -1.81024516e+000 1.72893369e+000
      -2.38395023e+000 -9.62355018e-001 2.65298748e+000 -2.47189355e+000
      -1.11893189e+000 9.39814627e-001 3.27319443e-001 1.80091426e-001
      3.57628155e+000 2.38063121e+000 -1.67533040e+000 4.17126834e-001
      -2.99313456e-001 -5.81016541e-001 8.93934011e-001 4.41065460e-001
      2.02369869e-001 -9.74789798e-001 -3.28312278e+000 2.78753638e+000
      -4.36776733e+000 -4.24675763e-001 5.57233512e-001 1.57247090e+000
      7.98843205e-001 8.14298570e-001 -1.10258317e+000 -7.93512046e-001
      5.94341636e-001 3.93506575e+000 1.40935087e+000 6.34292543e-001
      1.30277947e-001 1.90034449e-001 4.32802391e+000 3.23170185e+000
      -2.50233197e+000 2.54021376e-001 -3.43175292e-001 9.25374746e-001
      1.32826254e-001 3.10573310e-001 -2.40443540e+000 8.01577151e-001
      -1.44785333e+000 2.37329200e-001 2.30114371e-001 -1.83286023e+000
      3.10358763e+000 2.99521780e+000 -5.95453262e-001 7.10116208e-001
      -2.73628139e+000 9.60676193e-001 -1.56578660e+000 4.57396317e+000
      -2.63966012e+000 -2.92835116e+000 7.14724362e-001 2.40623522e+000
      5.34281921e+000 -1.42436993e+000 2.18353486e+000 -1.67386129e-001
      -3.01789761e+000 1.44820654e+000 2.07903481e+000 -1.37431216e+000
      3.38887548e+000 -1.73340023e+000 1.47887111e+000 2.63228202e+000
      -9.58415717e-002 -7.67964423e-001 -1.44150245e+000 1.33441257e+000
      2.43251562e+000 1.43310332e+000 -9.19968784e-002 -2.98602057e+000
      1.68811107e+000 -6.28729984e-002 -1.25267196e+000 1.15029061e+000
      -2.81103015e+000 -5.91851175e-001 -2.12769485e+000 1.72302234e+000
      -1.91218388e+000 1.32182419e+000 -5.27517796e-002 -7.29975700e-001
      1.53867531e+000 -1.22193289e+000 2.41382909e+000 1.96493721e+000
      -1.42339897e+000 6.24557793e-001 5.00846565e-001 1.00904472e-001
      -1.59474790e+000 3.70688558e+000 -7.02640787e-002 -4.36335659e+000
      -9.33302045e-001 3.54759312e+000 -2.32797170e+000 -1.28909791e+000
      -4.27874476e-001 1.85227323e+000 -9.23813939e-001 -1.09295392e+000
      1.05363762e+000 -1.62175024e+000 1.70669305e+000 -2.88184094e+000
      4.43902493e+000 1.04879105e+000 -2.91467023e+000 -3.81915164e+000
      9.76592004e-001 4.88791764e-001 9.69457626e-001 -5.53364694e-001
      2.68995911e-001 2.65785432e+000 -4.30278748e-001 -5.67050695e+000
      3.46713400e+000 1.32711172e+000 -4.18827724e+000 8.18844497e-001
      -1.41499197e+000 1.36187100e+000 4.29443419e-001 1.04351962e+000
      2.81728387e-001 -1.29449177e+000 1.09106767e+000 3.06248736e+000
      -1.85815766e-001 -6.29065514e-001 -4.00017262e+000
      -2.39464670e-001 -4.27296966e-001 1.50447205e-001 2.22845769e+000
      2.98392624e-001 -1.37365675e+000 -1.62323856e+000 -2.81933594e+000
      1.14668500e+000 -1.22455215e+000 -1.02083161e-001 2.65175509e+000
      -3.25253040e-001 -6.75114810e-001 1.31373191e+000 7.99650490e-001
      -9.93177474e-001 -1.20833647e+000 -2.20400476e+000
      -1.09888339e+000 -2.07297444e+000 2.56644428e-001 -3.52129483e+000
      3.11056042e+000 -7.88810492e-001 -3.10297585e+000 3.96636903e-001
      1.64169860e+000 1.53522241e+000 2.13255763e+000 -1.29865336e+000
      2.36868119e+000 -5.77953041e-001 -5.94085991e-001 -5.14146030e-001
      -6.61759794e-001 1.35657203e+000 -2.12395930e+000 1.80559957e+000
      -2.16854334e+000 1.74270296e+000 -3.75815225e+000 7.95096874e-001
      -3.47113872e+000 4.11806679e+000 2.11654520e+000 3.31231904e+000
      -1.31174099e+000 -2.05486917e+000 6.66734159e-001 -1.50160813e+000
      2.82150722e+000 2.53121734e+000 -1.45114863e+000 6.72319293e-001
      -1.40536582e+000 -1.89843869e+000 -4.60941017e-001
      -1.24094641e+000 -9.37233508e-001 -3.69771868e-001 1.78898132e+000
      -2.09483695e+000 -5.34814715e-001 -1.40131235e+000
      -3.05848449e-001 -1.11715186e+000 9.61964577e-002 -1.26088083e+000
      -3.57484460e-001 -9.54365790e-001 5.10203056e-002 2.71019745e+000
      -1.36588025e+000 3.91274124e-001 -1.32752907e+000 1.05158806e+000
      3.77278239e-001 1.84034634e+000 2.45553756e+000 -6.86459303e-001
      -3.91393065e-001 4.42846060e-001 2.07327724e+000 -3.96686268e+000
      -2.52492547e+000 -6.16216302e-001 -2.81936258e-001
      -1.55709255e-002 2.08210373e+000 -6.50434208e+000 1.71237290e+000
      2.65847564e+000 4.50345421e+000 2.84534359e+000 1.01230192e+000
      1.05066264e+000 5.03367066e-001 2.78554916e+000 -3.58045149e+000
      2.34843016e+000 -1.52691737e-001 6.84108138e-001 -5.86429127e-002
      -1.20365524e+000 -6.82916716e-002 2.32699180e+000 -1.76678491e+000
      1.96229506e+000 -1.75413978e+000 -9.42927718e-001 -1.01732783e-001
      -7.19559908e-001 1.70509145e-001 -3.38634920e+000 1.12496293e+000
      -1.46352637e+000 -6.80101204e+000 -1.00347579e+000 5.49360752e-001
      -1.08193588e+000 -3.20105052e+000 -1.40840933e-002 3.87869883e+000
      -2.79126859e+000 1.93494558e+000 2.95790124e+000 3.10777044e+000
      -3.74055934e+000 1.70028961e+000 6.78777575e-001 2.18402505e+000
      -1.10155392e+000 -1.53223693e+000 7.08048522e-001 -2.61567473e-001
      -1.34009644e-001 -5.72412968e-001 3.85673070e+000 1.98939407e+000
      -1.59398293e+000 1.16038418e+000 2.19940662e-001 -7.95639694e-001
      1.62982065e-002 7.97570795e-002 -1.00043461e-001 -5.02655208e-001
      -3.03597212e+000 4.33578491e+000 -1.23993671e+000 -2.33885932e+000
      -8.23222771e-002 1.75564706e+000 -3.26651692e-001 -1.73244953e-001
      4.78807509e-001 1.09352100e+000 -3.08453202e+000 -3.61630976e-001
      -3.48682547e+000 -7.22903192e-001 2.75281739e+000 -9.96556640e-001
      4.46511555e+000 -1.18481076e+000 -7.45678961e-001 4.18583542e-001
      -8.18859041e-001 2.54212761e+000 6.40943706e-001 -2.20500469e+000
      -1.07014775e+000 -2.57772535e-001 7.92799234e-001 6.50185645e-001
      4.73381951e-002 2.28508282e+000 1.80205536e+000 -1.11776769e+000
      -1.78560090e+000 -2.99956441e+000 -3.64830375e-001 1.78244555e+000
      -6.64003372e-001 1.86840284e+000 2.02921224e+000 2.21715498e+000
      -1.80736601e+000 -2.12262702e+000 3.75576586e-001 -8.00386488e-001
      -2.30218935e+000 4.57449675e+000 -1.06559587e+000 -1.91852987e+000
      -1.49759758e+000 4.78683901e+000 2.21536255e+000 5.11029780e-001
      -1.01092660e+000 1.70680916e+000 -2.22143340e+000 1.43149531e+000
      -1.51011312e+000 -4.08350182e+000 -2.30238581e+000
      -2.03153181e+000 -1.77257490e+000 -3.99798942e+000
      -1.20815492e+000 -5.24348617e-002 -1.38948828e-001
      -1.67956030e+000 -8.59666467e-001 1.29434574e+000 1.04481494e+000
      4.96004075e-002 -2.49634218e+000 1.61987185e+000 -1.79729271e+000
      5.74663818e-001 -1.91945958e+000 3.04944134e+000 -3.75454330e+000
      8.25511739e-002 -1.84249148e-001 -2.94228226e-001 -8.88412654e-001
      6.12128615e-001 -2.52880192e+000 -3.62335038e+000 1.72040808e+000
      -8.48719418e-001 -1.82959810e-001 2.98262048e+000 -6.05485201e-001
      -9.67587054e-001 7.05832362e-001 1.98331392e+000 -1.36570835e+000
      -1.34234750e+000 1.33193031e-001 -3.85943627e+000 1.10187817e+000
      3.12619257e+000 1.21637261e+000 3.39992070e+000 -2.46041536e+000
      1.89787626e+000 1.88658452e+000 -3.82968009e-001 2.55621433e+000
      -3.94026566e+000 1.06807876e+000 -1.23983353e-001 1.37266839e+000
      -1.04585314e+000 3.61114764e+000 8.25345755e-001 -7.33404756e-001
      1.59115267e+000 1.11854732e+000 2.04746938e+000 -2.35718703e+000
      -6.17889911e-002 2.20403624e+000 -1.32628942e+000 -4.21122503e+000
      -5.00126660e-001 7.05965281e-001 -4.87672567e-001 2.62494969e+000
      1.44604445e+000 2.11295557e+000 1.21701467e+000 2.47723389e+000
      6.78922534e-001 9.95609760e-001 2.58711934e+000 -2.46291399e+000
      3.18356752e+000 -1.18936563e+000 -1.00109637e+000 3.01852202e+000
      -8.49543273e-001</_>
    <_>
      -3.84600937e-001 -1.59615362e+000 1.44215524e-001 1.40321028e+000
      9.99308705e-001 2.43836999e+000 -1.72702062e+000 -1.44624221e+000
      2.52949667e+000 -2.20106959e+000 5.14258325e-001 1.79094994e+000
      -3.98029804e+000 2.13319421e+000 5.19088447e-001 -2.83031774e+000
      -6.96273327e+000 8.83433723e+000 2.16115212e+000 8.89995039e-001
      7.46348739e-001 2.32549906e+000 -1.24775112e+000 1.08927965e+001
      3.38766646e+000 -3.96016169e+000 -3.28270245e+000 2.19268107e+000
      5.15074921e+000 -1.03568184e+000 -2.91529417e+000 2.52508497e+000
      -3.75150537e+000 5.52295256e+000 2.73320866e+000 -8.13477933e-001
      2.06907129e+000 -6.42475700e+000 -3.73727560e+000 6.48544979e+000
      2.60515642e+000 -1.36384869e+000 6.57996476e-001 -2.52637058e-001
      -4.40436220e+000 -4.89971608e-001 3.37543160e-001 4.81675148e+000
      2.17936063e+000 7.45699823e-001 1.15704858e+000 -1.94911242e+000
      -1.08744419e+000 -4.86936569e+000 1.13671803e+000 -7.88076735e+000
      -2.73331594e+000 8.79076540e-001 3.03910351e+000 5.97775877e-001
      -3.28895545e+000 2.53876686e+000 2.00051546e+000 -3.41913724e+000
      -9.32512641e-001 4.44782972e-001 -2.93004203e+000 -1.54123676e+000
      -1.54740679e+000 7.73080826e-001 2.80862689e+000 2.47235447e-001
      8.71758685e-002 3.24832976e-001 -5.99240065e-002 -8.69396269e-001
      3.50329423e+000 -1.13332283e+000 -1.93375301e+000 -1.02244437e+000
      1.04695594e+000 1.99033439e-001 7.20583379e-001 -1.48792124e+000
      -7.48803318e-001 -4.52205086e+000 1.25781679e+000 2.03803405e-001
      1.73237538e+000 -2.48109722e+000 4.22762251e+000 5.93520850e-002
      -1.57052147e+000 -1.40456939e+000 2.71163344e+000 -3.90940261e+000
      -1.63566267e+000 -4.51358736e-001 -1.17329383e+000
      -1.13903201e+000 3.73512435e+000 1.03492543e-001 -1.80891562e+000
      3.44521880e+000 -8.97557020e-001 6.01574039e+000 4.77517128e+000
      -5.87566733e-001 -1.83340025e+000 2.42535639e+000 3.95738095e-001
      2.91917825e+000 -4.81394857e-001 -4.12546545e-001 8.38698983e-001
      -1.91666174e+000 -1.61316657e+000 -4.98460293e+000 3.34594756e-001
      -3.79050374e+000 5.20527649e+000 -3.71586943e+000 9.59883705e-002
      -1.51943362e+000 1.43542141e-001 -3.61628795e+000 3.76522279e+000
      -1.32673597e+000 -7.43553162e-001 -6.06506300e+000 8.89102295e-002
      2.43842602e+000 -8.05696547e-001 5.05830050e+000 -1.94885448e-001
      0. 2.23104644e+000 -2.40818858e-002 1.79048789e+000
      5.65260553e+000 -7.09720731e-001 1.01130553e-001 4.87816620e+000
      -9.46867645e-001 4.96538989e-002 -1.56767035e+000 1.84459984e+000
      2.34794021e+000 6.35755599e-001 -1.80185810e-001 1.21657360e+000
      2.04052567e+000 -8.11826897e+000 -3.80486751e+000 -1.31059229e+000
      6.89803004e-001 2.35845160e+000 3.55777889e-001 -2.01774502e+000
      2.46590900e+000 -1.08076847e+000 -7.80506790e-001 -4.53564674e-001
      4.89720154e+000 1.84298980e+000 3.96747589e+000 5.41566670e-001
      1.27745521e+000 1.26354384e+000 1.82123971e+000 1.07297266e+000
      -2.05497956e+000 3.18585396e+000 9.12973166e-001 1.26074791e+000
      1.77317441e+000 -1.49365330e+000 -6.07411718e+000 -1.76798487e+000
      -1.37557459e+000 -1.20158730e+001 -3.86247411e-002
      -5.69093657e+000 2.82714653e+000 -9.21762884e-001 -4.95604324e+000
      -1.17301740e-001 5.74476385e+000 -5.13743520e-001 -7.13521302e-001
      4.51403379e-001 4.08776712e+000 -2.20007801e+000 7.80461967e-001
      2.41346264e+000 1.89623928e+000 2.62791824e+000 -1.01421523e+000
      3.22235376e-001 6.37127590e+000 2.02013105e-001 -2.18378949e+000
      -8.34576607e-001 -2.38595629e+000 6.32634580e-001 -2.22990251e+000
      -1.86929286e+000 1.08656645e+000 1.14235044e+000 1.43273890e+000
      3.22648048e+000 3.73436379e+000 -2.42143917e+000 3.67084193e+000
      -1.56687155e-001 -2.12352061e+000 1.87071252e+000 6.45418549e+000
      -3.28085399e+000 -4.98096037e+000 -1.34510958e+000
      -3.01886797e-001 -3.88264298e-001 -1.08748925e+000
      -6.31783724e-001 -1.39866006e+000 -2.53390622e+000 1.65939629e+000
      -4.37824440e+000 2.36953497e-001 -1.83462083e+000 -2.50728726e+000
      2.21811128e+000 1.11589715e-001 6.19784713e-001 1.62751913e+000
      -4.87545347e+000 3.11597729e+000 2.15594158e-001 -2.31744432e+000
      2.37612054e-001 2.09050632e+000 2.28346848e+000 -1.92583477e+000
      -1.53207278e+000 1.08776450e+000 -3.38102484e+000 -8.02852094e-001
      -1.06677687e+000 3.43881226e+000 -3.25875497e+000 5.59329224e+000
      -3.92220974e-001 2.52344996e-001 3.18755651e+000 4.56684023e-001
      1.30317354e+000 -1.81003198e-001 1.33864772e+000 3.10455918e+000
      2.57500839e+000 -2.12632966e+000 -3.53448844e+000 -3.55703807e+000
      -1.79666221e+000 -4.33093309e-001 2.92796493e-001 3.91773248e+000
      4.59058195e-001 -2.49642420e+000 1.99712718e+000 1.54955894e-001
      1.52534604e+000 -3.75963473e+000 -3.80765700e+000 -4.81901026e+000
      0. 1.18157816e+000 7.87939727e-001 -5.52452612e+000
      1.81213760e+000 -1.14483547e+001 -5.23597300e-001 2.95180976e-001
      -1.96841657e+000 -8.45180750e-001 5.92682457e+000 1.50575185e+000
      6.73352575e+000 -1.01790977e+000 2.89097643e+000 -1.80119479e+000
      -5.95856965e-001 3.63537598e+000 -1.68487287e+000 -1.28398442e+000
      3.52637410e+000 -2.33023524e+000 -4.77823168e-001 2.34745026e-001
      -1.05925059e+000 1.32658660e+000 2.13593781e-001 -1.50393271e+000
      1.46277368e+000 4.46423531e+000 4.26404953e+000 6.00369978e+000
      4.61219549e+000 1.86195207e+000 -1.85591683e-001 -4.31852669e-001
      2.41468835e+000 -1.62424731e+000 6.90571165e+000 1.32052994e+000
      4.31670636e-001 1.67167664e-001 -2.84507322e+000 2.60350943e+000
      -1.92604613e+000 6.78115010e-001 -4.07881451e+000 -3.28775239e+000
      1.98059022e+000 -1.19307578e+000 -7.58129501e+000 5.09834528e+000
      2.42815107e-001 2.96664405e+000 8.10353637e-001 4.20458466e-001
      -5.37016010e+000 3.25353555e-002 -6.36567354e-001 4.75290477e-001
      -9.75740850e-001 4.69228458e+000 -1.75801742e+000 -3.57894421e+000
      -2.11138272e+000 5.63066339e+000 3.33334863e-001 1.59599733e+000
      4.21684504e+000 3.11027288e+000 -1.80505657e+000 -6.01008034e+000
      6.67894423e-001 2.58534575e+000 -1.58168674e+000 -5.36128855e+000
      2.67940879e-001 -1.14293547e+001 -1.19587278e+000 5.17121983e+000
      5.83184421e-001 -2.25481796e+000 -1.96862936e+000 2.84566104e-001
      5.03491342e-001 -2.61209935e-001 4.32701468e-001 2.32676673e+000
      7.44482577e-001 -2.88064694e+000 -2.68334985e+000 -2.79554176e+000
      -2.65691519e+000 -2.34550834e+000 8.33373666e-001 2.29498315e+000
      -9.11940038e-001 -1.60145617e+000 -4.85767245e-001
      -4.95772570e-001 -2.25077868e+000 -2.11362886e+000 5.38190985e+000
      -5.56497395e-001 -1.86854398e+000 -9.90380883e-001
      -1.70555443e-001 -5.31117344e+000 5.89586675e-001 -3.64156008e-001
      -4.06425446e-001 -1.54001641e+000 1.17661081e-001 -3.16905332e+000
      -3.32574129e+000 2.56668329e+000 -6.06760502e-001 -3.40067315e+000
      2.26957631e+000 -4.63381320e-001 -2.39319474e-001 -6.88033402e-001
      -2.18100309e+000 -8.26433301e-001 -1.59008181e+000
      -4.28359222e+000 -2.92799664e+000 -4.93599176e+000 9.58202064e-001
      -2.17299080e+000 -3.87913609e+000 4.90756893e+000 4.71964896e-001
      1.60275966e-001 1.08159095e-001 6.52096939e+000 5.91786098e+000
      -1.05008245e+000 -4.61188078e+000 1.09529793e+000 1.91156948e+000
      -1.66720510e+000 -9.22585487e-001 -2.37314939e+000
      -1.44572115e+000 -1.28922987e+000 6.28748000e-001 -1.27420902e+000
      -6.41850293e-001 1.24054873e+000 -4.71769094e-001 -3.12333941e+000
      -3.41722083e+000 1.21738732e+000 2.59096789e+000 3.11668634e-001
      -2.21505356e+000 -3.40222925e-001 -4.19239235e+000 5.28108597e-001
      -5.23718238e-001 2.43594003e+000 1.80708921e+000 1.65917468e+000
      6.16125941e-001 -2.30752802e+000 -2.50496292e+000 -2.90037423e-001
      -2.77148414e+000 -3.39265013e+000 1.79230940e+000 9.54475045e-001
      6.83998287e-001 3.95957661e+000 -9.07077610e-001 -2.55491376e-001
      -2.61771369e+000 8.34959626e-001 6.61841333e-001 4.51644659e-001
      2.19653296e+000 -4.34697308e-002 7.29542136e-001 1.83526349e+000
      7.43409276e-001 -1.95073247e+000 3.88753724e+000 4.40556812e+000
      -1.32586598e+000 -1.17736734e-001 -3.99346143e-001 4.76182908e-001
      -6.45522213e+000 1.55427063e+000 2.14693475e+000 -1.35714090e+000
      1.37498307e+000 -2.44491294e-001 -2.19274211e+000 -2.61735964e+000
      -6.15759909e-001 3.22628975e+000 -3.01318198e-001 -2.86952758e+000
      3.54292059e+000 3.92779022e-001 7.50824928e+000 1.68753028e+000
      4.42677116e+000 0. 2.22126555e+000 -7.01007068e-001
      4.08964968e+000 2.85579133e+000 -3.57596779e+000 2.19174719e+000
      -3.37686396e+000 3.51393795e+000 -1.20919096e+000 7.00452185e+000
      -1.49283424e-001 2.26489067e-001 1.93306971e+000 1.61966085e+000</_>
    <_>
      2.26686454e+000 6.18284829e-002 2.13063526e+000 2.46686745e+000
      2.41145447e-001 -9.56574082e-002 -3.95939767e-001 -1.19908667e+000
      -1.30289972e+000 1.45162725e+000 2.64013743e+000 -8.65169942e-001
      -4.16088533e+000 2.99398392e-001 -1.71364295e+000 -4.53099072e-001
      -4.24700212e+000 -7.80873179e-001 1.11624944e+000 3.67476404e-001
      3.27740884e+000 8.31781197e+000 -5.75568974e-002 3.88967752e-001
      -2.18094483e-001 -1.61141455e+000 -1.47742128e+000
      -1.86933890e-001 -8.44937623e-001 -1.93274713e+000 2.12177658e+000
      1.50977552e+000 -3.09634686e+000 -1.58435002e-001 1.99343860e+000
      -1.12505782e+000 5.02129126e+000 -3.67813134e+000 -1.01482439e+000
      2.63128281e-001 1.72592485e+000 8.81870985e-001 4.28987592e-001
      2.57062411e+000 -3.05677342e+000 -1.90332904e-001 5.40634775e+000
      -1.12806082e+000 1.07605886e+000 2.99988008e+000 -2.92363882e+000
      1.78825319e-001 -5.17367780e-001 -2.32732749e+000 1.27894211e+000
      -3.58129358e+000 5.68701148e-001 7.77728081e-001 -1.13534272e+000
      5.00295579e-001 -3.56929016e+000 5.27243651e-002 -1.14323950e+000
      -1.70558929e+000 9.97671187e-001 -2.77868181e-001 8.92338380e-002
      1.93236038e-001 -1.97737634e+000 7.63159692e-001 9.16377664e-001
      3.32578373e+000 1.39050996e+000 -1.93967044e+000 2.47193742e+000
      1.68394077e+000 7.25809395e-001 -2.51122594e-001 -1.52052104e+000
      -2.44707990e+000 -1.08688962e+000 2.38873911e+000 4.50254492e-002
      -1.93470437e-002 2.37822637e-001 -1.39721227e+000 1.75825179e+000
      -5.17990589e-001 4.99520451e-001 3.07626748e+000 -1.75243914e+000
      3.52925038e+000 -1.18874192e+000 -2.52522588e+000 -1.74041557e+000
      -3.18226695e+000 -1.65568435e+000 5.09795904e-001 6.87825084e-001
      2.95094579e-001 -4.80770051e-001 1.31922972e+000 -3.54089379e-001
      6.24170542e-001 -2.47822452e+000 -3.64056498e-001 -2.29733157e+000
      2.50413966e+000 -2.17477822e+000 4.97992456e-001 -4.46372628e-001
      7.98196852e-001 -4.02194858e-001 2.27798247e+000 -4.93676305e-001
      1.08629215e+000 -2.55209017e+000 -1.28084362e+000 1.05745220e+000
      -4.25087690e+000 3.58690023e-001 -1.89921093e+000 5.73321767e-002
      2.68890071e+000 -9.35145915e-001 -1.81700781e-001 -1.67767727e+000
      1.95303905e+000 2.20646238e+000 -2.96703410e+000 -2.68981767e+000
      8.07063878e-001 5.37632644e-001 -2.59314895e-001 1.81026578e-001
      2.26743197e+000 7.34509376e-004 -6.76470816e-001 1.67908227e+000
      -9.45785284e-001 4.96270567e-001 1.07937229e+000 -1.86519468e+000
      -7.24741578e-001 1.03900075e-001 -3.69776219e-001 -7.66683400e-001
      -5.95153034e-001 -1.37902296e+000 1.10193348e+000 2.03126788e+000
      -7.50326067e-002 -2.89301538e+000 -1.68271303e+000
      -2.34709644e+000 2.13065386e+000 5.33573985e-001 2.38930798e+000
      9.31303322e-001 2.65494871e+000 -8.12704444e-001 -9.44867373e-001
      2.76656580e+000 3.56521249e-001 1.66823053e+000 -1.87652022e-001
      -1.00502753e+000 2.17673850e+000 -1.30308414e+000 2.14688346e-001
      -4.32926238e-001 9.57708359e-001 -2.60675263e+000 4.34384078e-001
      5.78154421e+000 1.71018362e+000 -3.35227823e+000 -1.19777524e+000
      -5.82957029e-001 6.90226555e-001 -5.90423155e+000 1.65194780e-001
      -9.47384536e-002 -3.45496327e-001 4.82788444e-001 -3.59104538e+000
      3.66610742e+000 -1.78206503e+000 -4.39831436e-001 3.83753633e+000
      3.18086147e+000 -3.04673523e-001 -3.58900845e-001 -1.15284252e+000
      6.75608158e-001 1.25196648e+000 -4.75742847e-001 -1.42245382e-001
      7.19725418e+000 -2.08231121e-001 5.34209870e-002 3.64218760e+000
      -2.39830208e+000 -6.56250954e-001 -1.31133044e+000
      -2.39338613e+000 -6.96643054e-001 1.04043877e+000 1.68628228e+000
      -9.75198567e-001 -4.37724382e-001 -3.45406383e-001
      -6.43976867e-001 3.15646315e+000 -4.70243096e-002 -1.39806235e+000
      1.19601555e-001 3.24311942e-001 -1.72588730e+000 2.36847606e-002
      1.35489905e+000 2.58337569e+000 -3.04981780e+000 7.52497554e-001
      4.71016467e-001 -4.36990786e+000 -4.59166408e-001 1.95792222e+000
      -3.07822180e+000 5.61198413e-001 4.74374413e-001 1.58926994e-001
      1.44514954e+000 1.38281560e+000 1.02281821e+000 -4.36196744e-001
      1.83681989e+000 -5.49351722e-002 7.88736582e-001 1.21483564e+000
      -5.02527952e-001 -1.90067697e+000 -2.39149141e+000
      -2.31295204e+000 -8.85821939e-001 -2.38643694e+000
      -1.29871443e-001 -6.70877874e-001 -1.60832310e+000 3.16167426e+000
      -2.34354496e+000 4.06439638e+000 -1.57574058e+000 2.83248138e+000
      6.34803712e-001 6.05322647e+000 5.57435632e-001 3.35544229e+000
      -4.14839554e+000 -4.11705852e-001 -5.91751873e-001
      -4.52059567e-001 1.38312125e+000 -1.89894283e+000 1.71347773e+000
      -7.61156619e-001 -5.74473441e-001 1.54726446e+000 -7.50529528e-001
      -5.69782257e-001 3.45979667e+000 2.09500447e-001 1.46546352e+000
      -4.71137226e-001 -2.90348053e+000 -3.17515421e+000 1.74476624e+000
      1.91342032e+000 2.31568766e+000 -8.10117424e-001 1.65226293e+000
      -3.98616433e+000 7.77911186e-001 9.14171576e-001 7.62620270e-001
      -1.15400314e+000 -7.44375825e-001 1.83015868e-001 9.91500854e-001
      1.67463386e+000 -1.36626756e+000 -2.58440351e+000 -1.84034610e+000
      -2.24649453e+000 8.27579618e-001 2.15286061e-001 -9.95612979e-001
      -2.13185191e+000 3.37736583e+000 1.30676520e+000 3.58406961e-001
      2.04675376e-001 -1.82458177e-001 -2.65409398e+000 4.65871334e+000
      -1.14573717e+000 -1.81263435e+000 -2.41372180e+000
      -2.17911863e+000 6.60622194e-002 -2.04853034e+000 2.35929742e-001
      4.72628295e-001 1.96874034e+000 -6.67618871e-001 1.74684453e+000
      -4.47607458e-001 -1.66083738e-001 1.37615097e+000 -1.76283911e-001
      -1.71004534e+000 1.51198387e+000 -2.68273902e+000 -8.39189813e-002
      8.90865088e-001 3.03127468e-001 -4.15853262e+000 2.39149213e+000
      3.68493223e+000 -1.83093309e-001 7.80017138e-001 7.35705566e+000
      -7.33261287e-001 5.54366075e-002 4.00954455e-001 4.62577677e+000
      2.29262576e-001 -5.29754572e-002 3.30776501e+000 -5.25358772e+000
      -4.38803768e+000 -3.90805990e-001 5.58856344e+000 1.14893019e+000
      -2.69782096e-001 -1.13452768e+000 1.16900337e+000 -1.42955041e+000
      -7.32735693e-001 1.73261404e+000 -1.72699356e+000 -2.25273871e+000
      -2.82931232e+000 -4.04019260e+000 8.62330735e-001 -1.62673682e-001
      5.57427287e-001 2.22392872e-001 -1.21122396e+000 4.03193891e-001
      3.46940905e-001 9.45537388e-001 2.02698064e+000 -2.07889605e+000
      1.37132168e+000 -3.57086599e-001 -1.01327741e+000 -2.13862658e+000
      -6.76392496e-001 -1.04830906e-001 -1.66244173e+000 3.94032419e-001
      3.41914368e+000 -6.06337711e-002 2.63824916e+000 4.18459475e-001
      -1.81790841e+000 -5.96322596e-001 -6.11794055e-001 7.91957915e-001
      1.30766749e-001 -8.55375171e-001 8.37165892e-001 -3.68297982e+000
      4.85890239e-001 2.32548451e+000 1.11353886e+000 1.81801096e-002
      -3.94455528e+000 -1.91146183e+000 -1.97407699e+000
      -8.90289009e-001 -8.22125494e-001 -5.40612757e-001 1.26887250e+000
      2.44639111e+000 7.12386191e-001 -1.95461142e+000 -7.99977064e-001
      -1.31299078e+000 -1.04314530e+000 -9.36393499e-001 8.26016963e-001
      4.85809088e-001 1.31980693e+000 -1.46340340e-001 1.91572356e+000
      -7.19780266e-001 8.98676753e-001 2.01398206e+000 1.35884643e+000
      -1.70936203e+000 -2.28993192e-001 -1.75934231e+000
      -2.87415075e+000 -9.30107713e-001 1.91057849e+000 -1.84117568e+000
      1.49194849e+000 3.89487410e+000 2.26934910e+000 1.48191094e+000
      1.15592277e+000 2.39850354e+000 1.77706468e+000 -6.65744781e-001
      -5.19416928e-001 1.01503098e+000 9.26044941e-001 3.32205355e-001
      6.76071346e-001 -6.65970623e-001 1.56153548e+000 -2.46149063e+000
      1.55364764e+000 5.35912097e-001 5.22453964e-001 -2.79724932e+000
      3.68427873e+000 2.80306995e-001 3.96932125e-001 -1.45930851e+000
      -2.27016404e-001 -4.61974502e-001 1.83940351e+000 2.62881184e+000
      -5.14045477e-001 2.87152743e+000 -1.74525887e-001 -1.28390419e+000
      -5.85875332e-001 1.30858743e+000 -2.03882861e+000 -1.17243505e+000
      1.01011407e+000 1.26624763e+000 1.09768939e+000 4.63736868e+000
      -9.37348008e-001 -6.49075150e-001 -4.69129771e-001
      -3.88976669e+000 1.28130662e+000 -1.38124084e+000 -2.92532921e+000
      3.53246450e-001 -2.78590560e+000 3.83300018e+000 -4.34771395e+000
      -3.54760289e-001 -1.08030701e+000 -4.97952253e-001
      -2.83155203e+000 -1.68539190e+000 -7.03065872e-001
      -4.13825655e+000 -3.49098802e-001 2.94283211e-001 1.80917537e+000
      -1.44005656e+000 -3.05242419e-001 2.83702880e-001 5.65518379e+000
      5.65601647e-001 -1.92303166e-001 2.57631123e-001 -2.04644084e+000
      -2.49457812e+000 -1.73604235e-001 -3.47826093e-001
      -3.14253449e+000 -1.51738450e-001 -2.01176167e+000 5.80008149e-001
      1.24966550e+000 1.00744091e-001 9.98915076e-001 1.20197332e+000
      -2.82533693e+000 8.67375731e-001</_></support_vectors>
  <decision_functions>
    <_>
      <sv_count>1</sv_count>
      <rho>5.7305875686198826e-002</rho>
      <alpha>
        1.</alpha>
      <index>
        0</index></_>
    <_>
      <sv_count>1</sv_count>
      <rho>1.9331191118677565e-002</rho>
      <alpha>
        1.</alpha>
      <index>
        1</index></_>
    <_>
      <sv_count>1</sv_count>
      <rho>-9.8192540421228713e-002</rho>
      <alpha>
        1.</alpha>
      <index>
        2</index></_></decision_functions></my_svm>
</opencv_storage>
